{
  "metadata": {
    "input_size": 10,
    "hidden_size": 16,
    "output_size": 7,
    "accuracy": 0.6363636255264282
  },
  "W1": [
    [
      0.4359693229198456,
      -0.2531428933143616,
      0.4646950364112854,
      0.47076043486595154,
      -0.5311725735664368,
      0.45758357644081116,
      -0.8369180560112,
      -0.5794863104820251,
      0.8229199051856995,
      0.13267500698566437,
      0.4506947994232178,
      0.26832443475723267,
      -0.19740231335163116,
      0.009998152032494545,
      -0.10777908563613892,
      0.0556161031126976
    ],
    [
      0.6284277439117432,
      -0.4156694710254669,
      -0.5370907783508301,
      -0.1307973563671112,
      -0.29951706528663635,
      0.2827952206134796,
      0.06426458060741425,
      -0.5698595643043518,
      0.39477524161338806,
      -0.8114584684371948,
      0.6876014471054077,
      0.7518240809440613,
      -0.2671377956867218,
      0.07960283756256104,
      -0.1375538408756256,
      0.28091961145401
    ],
    [
      0.6230247616767883,
      0.624165415763855,
      0.6047725081443787,
      -0.23686154186725616,
      0.17851537466049194,
      0.34314653277397156,
      -0.028492433950304985,
      -0.30896079540252686,
      0.059792205691337585,
      0.200541689991951,
      0.07685092091560364,
      -0.8524598479270935,
      0.548913300037384,
      0.001139598316513002,
      0.09206429868936539,
      0.08757524192333221
    ],
    [
      0.4495408833026886,
      0.4617263376712799,
      -0.4614965617656708,
      0.02589804120361805,
      -0.4004374146461487,
      0.048938099294900894,
      0.1068340390920639,
      -0.4327753782272339,
      0.17837627232074738,
      0.06445848196744919,
      0.013548092916607857,
      -0.32656702399253845,
      -0.1643959879875183,
      0.2669431269168854,
      0.22480323910713196,
      0.5525806546211243
    ],
    [
      0.04030439257621765,
      -0.2673550546169281,
      0.22903744876384735,
      0.25439774990081787,
      0.2769213914871216,
      -0.1620035171508789,
      0.21347662806510925,
      0.20689362287521362,
      0.03414621949195862,
      0.01529957540333271,
      -0.22938618063926697,
      -0.005886470898985863,
      0.29296740889549255,
      0.2707819938659668,
      -0.4302690923213959,
      -0.06930217891931534
    ],
    [
      -0.08965283632278442,
      0.1841539442539215,
      0.38913482427597046,
      0.13046322762966156,
      -0.275203138589859,
      -0.16569529473781586,
      0.26465821266174316,
      -0.7542482614517212,
      -0.04513389617204666,
      -0.34150034189224243,
      -0.49767032265663147,
      0.09967420995235443,
      0.38772302865982056,
      -0.1687680184841156,
      0.06728161871433258,
      -0.37861332297325134
    ],
    [
      0.19415071606636047,
      -0.3742348551750183,
      -0.018803900107741356,
      0.4405815899372101,
      0.12513643503189087,
      0.38042330741882324,
      -0.2774258553981781,
      -0.1253548562526703,
      -0.3983381986618042,
      -0.4941493570804596,
      -0.5210368633270264,
      -0.04672878980636597,
      0.6447516679763794,
      0.2568706274032593,
      0.3870405852794647,
      0.3450397551059723
    ],
    [
      0.39054638147354126,
      -0.617235004901886,
      0.04465962201356888,
      0.14923511445522308,
      -0.2762903869152069,
      0.5590428709983826,
      -0.19022312760353088,
      0.05746367946267128,
      0.2680054306983948,
      0.1798093020915985,
      -0.4571276605129242,
      0.01767846755683422,
      0.06636733561754227,
      -0.3372770845890045,
      0.3452344238758087,
      0.27740421891212463
    ],
    [
      0.11015558987855911,
      0.24761167168617249,
      0.1759590208530426,
      0.6399075388908386,
      -0.36188992857933044,
      -0.12748369574546814,
      -0.04279549792408943,
      0.2713485360145569,
      -0.7070193290710449,
      -0.08020089566707611,
      -0.03811121731996536,
      0.33820289373397827,
      0.26118209958076477,
      -0.1596948504447937,
      -0.2803301513195038,
      -0.31709933280944824
    ],
    [
      0.12388527393341064,
      -0.2821345031261444,
      0.17334991693496704,
      -0.15263782441616058,
      0.5303807258605957,
      0.14076876640319824,
      -0.6413293480873108,
      -0.3583510220050812,
      -0.10376828163862228,
      -0.11860296875238419,
      0.16433817148208618,
      -0.2968606948852539,
      0.26598042249679565,
      -0.09442069381475449,
      0.3866005837917328,
      0.0033385264687240124
    ]
  ],
  "b1": [
    0.20612330734729767,
    0.3271067440509796,
    0.5514845848083496,
    0.22514589130878448,
    -0.10979300737380981,
    0.034604594111442566,
    0.309789776802063,
    0.2842027246952057,
    0.29439327120780945,
    0.04196026921272278,
    0.1052497923374176,
    0.3284146189689636,
    -0.10359799861907959,
    -0.05470063537359238,
    -0.06764964759349823,
    0.038594696670770645
  ],
  "W2": [
    [
      -0.4134695529937744,
      0.420853853225708,
      0.10180939733982086,
      0.8135090470314026,
      -0.25549787282943726,
      0.2502480745315552,
      -0.27781274914741516
    ],
    [
      -0.7350643873214722,
      0.17650501430034637,
      -0.3870503008365631,
      0.2647373080253601,
      -0.1209321916103363,
      -0.36494743824005127,
      0.43631988763809204
    ],
    [
      -0.12471922487020493,
      0.5502662062644958,
      -0.30764439702033997,
      0.3370295464992523,
      0.1096797063946724,
      -0.5328077077865601,
      -0.9851309657096863
    ],
    [
      -0.40376976132392883,
      0.36828359961509705,
      0.7425265908241272,
      -0.30561283230781555,
      0.002692026784643531,
      -0.15946528315544128,
      -0.2715703248977661
    ],
    [
      0.131910502910614,
      0.11347398906946182,
      -0.562877357006073,
      -0.5064710378646851,
      -0.1549319475889206,
      -0.49373239278793335,
      0.4005689322948456
    ],
    [
      -0.03748093917965889,
      0.48059260845184326,
      -0.14881843328475952,
      0.5696306824684143,
      -0.7558857798576355,
      0.07246219366788864,
      0.07261954993009567
    ],
    [
      -0.06398343294858932,
      -0.07308415323495865,
      -0.4833240807056427,
      0.28429457545280457,
      0.7272511720657349,
      -0.7442099452018738,
      0.6921526193618774
    ],
    [
      -0.7606156468391418,
      -0.23958376049995422,
      0.10268447548151016,
      -0.3493320345878601,
      0.21526376903057098,
      -0.6603711247444153,
      0.6979547142982483
    ],
    [
      0.4461838901042938,
      -0.017368601635098457,
      -0.07642972469329834,
      0.08789457380771637,
      -0.4075779318809509,
      0.33041056990623474,
      -1.013513445854187
    ],
    [
      -0.6476331949234009,
      -0.08017828315496445,
      -0.09280139207839966,
      -0.5919306874275208,
      0.701188325881958,
      -0.2922830879688263,
      -0.04368250072002411
    ],
    [
      0.15982301533222198,
      -0.813965916633606,
      -0.049717195332050323,
      0.21662643551826477,
      -0.09630044549703598,
      0.17483824491500854,
      -0.14880916476249695
    ],
    [
      0.35063984990119934,
      -0.6072588562965393,
      0.5122917294502258,
      -0.8279122114181519,
      0.07527127861976624,
      0.4316795766353607,
      -0.8524052500724792
    ],
    [
      0.060316845774650574,
      0.3725472092628479,
      -0.20132698118686676,
      0.13459442555904388,
      -0.6361103057861328,
      0.3145299553871155,
      -0.4341913163661957
    ],
    [
      0.24253995716571808,
      0.09016191959381104,
      -0.04085679352283478,
      -0.002027311595156789,
      -0.4973236620426178,
      -0.05983438342809677,
      0.2042883336544037
    ],
    [
      0.3340509533882141,
      0.555972695350647,
      -0.11547929793596268,
      -0.37881025671958923,
      -0.2380370795726776,
      0.3175504207611084,
      0.044979579746723175
    ],
    [
      0.29590916633605957,
      0.445375919342041,
      -0.748572051525116,
      0.28401172161102295,
      -0.3192989230155945,
      -0.0948253720998764,
      0.319600909948349
    ]
  ],
  "b2": [
    0.003385070711374283,
    -0.11797136068344116,
    0.05947941914200783,
    0.04428056254982948,
    0.28168177604675293,
    -0.0008921309490688145,
    -0.34528809785842896
  ],
  "mean": [
    -52.152671755725194,
    -59.81297709923664,
    -94.56870229007633,
    -97.12595419847328,
    -98.05725190839695,
    -98.27862595419847,
    -98.71374045801527,
    -98.87404580152672,
    -98.29007633587786,
    -99.48091603053435
  ],
  "std": [
    22.73695357226244,
    26.817864323284066,
    11.118766090922634,
    7.749130340629864,
    6.3113073195321645,
    5.431973586395271,
    5.295659512572154,
    5.010996880697522,
    5.985974127384355,
    3.518438118608284
  ],
  "ap_order": [
    "AP_0",
    "AP_1",
    "AP_2",
    "AP_3",
    "AP_4",
    "AP_5",
    "AP_6",
    "AP_7",
    "AP_8",
    "AP_9"
  ],
  "locations": [
    "Zone 1",
    "Zone 2",
    "Zone 3",
    "Zone 4",
    "Zone 5",
    "Zone 6",
    "Zone 7"
  ]
}